MTP
version = 1.1.0
potential_name = MTP1m
scaling = 1.900800000000002e+00
species_count = 2
potential_tag = 
radial_basis_type = RBChebyshev
	min_dist = 2.000000000000000e-01
	max_dist = 5.000000000000000e+00
	radial_basis_size = 8
	radial_funcs_count = 3
	radial_coeffs
		0-0
			{-1.827085180329346e-04, -5.627642718909234e-03, 6.406265204757060e-04, -1.919752339291086e-03, 1.763909473684965e-04, -2.628164816070704e-04, -3.312408466427389e-05, 1.841371838149254e-05}
			{-2.181985519515640e-03, -1.297713049059237e-03, -2.602965884323647e-03, 1.535653053448628e-04, -1.134475034790266e-03, 1.263659253827552e-04, -2.528292297298831e-04, -2.768945002069773e-05}
			{9.597861282980237e-03, 2.648631196171654e-02, 7.808333622402630e-03, 8.768009850883782e-03, 2.653937548087254e-03, 2.520896910231614e-03, 3.829349212542100e-04, 7.262269816892373e-04}
		0-1
			{9.269613509292335e-02, -1.867994221208029e-01, 1.520639612952871e-01, -1.166663666094614e-01, 7.126289471689731e-02, -4.562164154112546e-02, 1.652987911329366e-02, -9.155328361444537e-03}
			{2.334498353468596e-02, -4.573377873575080e-02, 4.050333453483003e-02, -3.374337342188979e-02, 2.175533498557591e-02, -1.728419131606298e-02, 6.627783839490794e-03, -4.847255808808298e-03}
			{2.639751786774188e-01, -2.122717991010586e-01, 3.334651227677660e-01, 2.276243267591432e-01, -5.461022137023181e-02, 2.231800218781193e-01, -1.748889931636352e-01, 9.042008009606101e-02}
		1-0
			{-3.123599945516406e-04, 2.135778126572103e-04, -5.073108802172294e-04, 2.046555306665222e-04, -2.298544970064517e-04, 1.318202191316063e-04, -5.831173305422139e-05, 3.574442559169036e-05}
			{2.560824619698723e-01, -3.856126610828436e-01, 3.733366584668011e-01, -2.103817541456518e-02, 6.211691578581189e-02, 7.637555801162688e-02, -7.969016265403171e-02, 4.482102107226510e-02}
			{6.524455425898364e-02, 3.741653307440253e-02, 4.077831744595090e-02, 2.518432235538304e-01, -1.026191150002755e-01, 1.968744311650703e-01, -1.162135836391737e-01, 7.340423185582393e-02}
		1-1
			{-2.731298347235163e-01, 3.192726529133781e-01, 1.594783031346434e-01, -5.173781747541024e-01, 5.451653245177541e-01, -3.528964017770191e-01, 1.407664379699561e-01, -3.195262261248152e-02}
			{3.171232012037852e-01, 2.017373925957141e-01, -1.080404093993087e-01, -4.237833461053035e-01, -4.395945202930180e-01, -2.008405865122132e-01, -2.286645747701209e-01, 5.641715517750003e-02}
			{3.593165634450423e-01, 9.403322234325159e-02, -8.309024181157906e-02, 2.112087042702345e-01, 2.426571899110618e-01, 2.049386166048440e-02, 7.617145497097536e-02, 4.860553180513434e-01}
alpha_moments_count = 41
alpha_index_basic_count = 25
alpha_index_basic = {{0, 0, 0, 0}, {0, 1, 0, 0}, {0, 0, 1, 0}, {0, 0, 0, 1}, {0, 2, 0, 0}, {0, 1, 1, 0}, {0, 1, 0, 1}, {0, 0, 2, 0}, {0, 0, 1, 1}, {0, 0, 0, 2}, {0, 3, 0, 0}, {0, 2, 1, 0}, {0, 2, 0, 1}, {0, 1, 2, 0}, {0, 1, 1, 1}, {0, 1, 0, 2}, {0, 0, 3, 0}, {0, 0, 2, 1}, {0, 0, 1, 2}, {0, 0, 0, 3}, {1, 0, 0, 0}, {1, 1, 0, 0}, {1, 0, 1, 0}, {1, 0, 0, 1}, {2, 0, 0, 0}}
alpha_index_times_count = 42
alpha_index_times = {{0, 0, 1, 25}, {1, 1, 1, 26}, {2, 2, 1, 26}, {3, 3, 1, 26}, {1, 4, 1, 27}, {2, 5, 1, 27}, {3, 6, 1, 27}, {1, 5, 1, 28}, {2, 7, 1, 28}, {3, 8, 1, 28}, {1, 6, 1, 29}, {2, 8, 1, 29}, {3, 9, 1, 29}, {4, 4, 1, 30}, {5, 5, 2, 30}, {6, 6, 2, 30}, {7, 7, 1, 30}, {8, 8, 2, 30}, {9, 9, 1, 30}, {10, 10, 1, 31}, {11, 11, 3, 31}, {12, 12, 3, 31}, {13, 13, 3, 31}, {14, 14, 6, 31}, {15, 15, 3, 31}, {16, 16, 1, 31}, {17, 17, 3, 31}, {18, 18, 3, 31}, {19, 19, 1, 31}, {0, 20, 1, 32}, {1, 21, 1, 33}, {2, 22, 1, 33}, {3, 23, 1, 33}, {0, 25, 1, 34}, {0, 26, 1, 35}, {0, 30, 1, 36}, {1, 27, 1, 37}, {2, 28, 1, 37}, {3, 29, 1, 37}, {0, 32, 1, 38}, {0, 34, 1, 39}, {0, 35, 1, 40}}
alpha_scalar_moments = 16
alpha_moment_mapping = {0, 20, 24, 25, 26, 30, 31, 32, 33, 34, 35, 36, 37, 38, 39, 40}
species_coeffs = {1.042323688861297e+01, 1.221621054749212e+02}
moment_coeffs = {1.204885668498462e+03, -1.250550719274362e+01, 4.825348991693579e+00, 2.668008479091035e+03, 4.691845366399668e+02, 2.162327440661868e+01, -9.240767304588649e+00, 2.300088892668810e+01, -8.331517226166186e+01, 2.618021828294651e+03, 1.577621145034722e+03, 3.818151007978275e+01, -1.012686012102870e+02, 1.081557040215608e+02, 1.002343275397962e+03, 1.328275138629420e+03}